digraph Tree {
node [shape=box, style="filled, rounded", color="black", fontname="helvetica"] ;
edge [fontname="helvetica"] ;
0 [label="petal length (cm) <= 2.7\ngini = 0.66\nsamples = 103\nvalue = [46, 55, 49]\nclass = versicolor", fillcolor="#f3fdf8"] ;
1 [label="gini = 0.0\nsamples = 36\nvalue = [46, 0, 0]\nclass = setosa", fillcolor="#e58139"] ;
0 -> 1 [labeldistance=2.5, labelangle=45, headlabel="True"] ;
2 [label="sepal length (cm) <= 6.15\ngini = 0.5\nsamples = 67\nvalue = [0, 55, 49]\nclass = versicolor", fillcolor="#e9fcf1"] ;
0 -> 2 [labeldistance=2.5, labelangle=-45, headlabel="False"] ;
3 [label="petal length (cm) <= 4.85\ngini = 0.25\nsamples = 29\nvalue = [0, 40, 7]\nclass = versicolor", fillcolor="#5cea97"] ;
2 -> 3 ;
4 [label="sepal length (cm) <= 4.95\ngini = 0.05\nsamples = 25\nvalue = [0, 40, 1]\nclass = versicolor", fillcolor="#3ee684"] ;
3 -> 4 ;
5 [label="gini = 0.0\nsamples = 1\nvalue = [0, 0, 1]\nclass = virginica", fillcolor="#8139e5"] ;
4 -> 5 ;
6 [label="gini = 0.0\nsamples = 24\nvalue = [0, 40, 0]\nclass = versicolor", fillcolor="#39e581"] ;
4 -> 6 ;
7 [label="gini = 0.0\nsamples = 4\nvalue = [0, 0, 6]\nclass = virginica", fillcolor="#8139e5"] ;
3 -> 7 ;
8 [label="petal length (cm) <= 5.0\ngini = 0.39\nsamples = 38\nvalue = [0, 15, 42]\nclass = virginica", fillcolor="#ae80ee"] ;
2 -> 8 ;
9 [label="petal width (cm) <= 1.7\ngini = 0.21\nsamples = 11\nvalue = [0, 15, 2]\nclass = versicolor", fillcolor="#53e892"] ;
8 -> 9 ;
10 [label="gini = 0.0\nsamples = 9\nvalue = [0, 15, 0]\nclass = versicolor", fillcolor="#39e581"] ;
9 -> 10 ;
11 [label="gini = 0.0\nsamples = 2\nvalue = [0, 0, 2]\nclass = virginica", fillcolor="#8139e5"] ;
9 -> 11 ;
12 [label="gini = 0.0\nsamples = 27\nvalue = [0, 0, 40]\nclass = virginica", fillcolor="#8139e5"] ;
8 -> 12 ;
}